<?xml version="1.0"?>
<opencv_storage>
<cascade>
  <stageType>BOOST</stageType>
  <featureType>HAAR</featureType>
  <height>24</height>
  <width>24</width>
  <stageParams>
    <boostType>GAB</boostType>
    <minHitRate>9.9500000476837158e-01</minHitRate>
    <maxFalseAlarm>5.0000000000000000e-01</maxFalseAlarm>
    <weightTrimRate>9.4999998807907104e-01</weightTrimRate>
    <maxDepth>1</maxDepth>
    <maxWeakCount>100</maxWeakCount></stageParams>
  <featureParams>
    <maxCatCount>0</maxCatCount>
    <featSize>1</featSize>
    <mode>BASIC</mode></featureParams>
  <stageNum>17</stageNum>
  <stages>
    <!-- stage 0 -->
    <_>
      <maxWeakCount>3</maxWeakCount>
      <stageThreshold>-1.3309804201126099e+00</stageThreshold>
      <weakClassifiers>
        <_>
          <internalNodes>
            0 -1 31 3.1789407134056091e-02</internalNodes>
          <leafValues>
            -9.5791584253311157e-01 7.5135135650634766e-01</leafValues></_>
        <_>
          <internalNodes>
            0 -1 25 -1.3191783428192139e-01</internalNodes>
          <leafValues>
            6.2079930305480957e-01 -8.8092684745788574e-01</leafValues></_>
        <_>
          <internalNodes>
            0 -1 41 4.7621177509427071e-03</internalNodes>
          <leafValues>
            -9.8396855592727661e-01 5.0786221027374268e-01</leafValues></_></weakClassifiers></_>
    <!-- stage 1 -->
    <_>
      <maxWeakCount>3</maxWeakCount>
      <stageThreshold>-1.2407019138336182e+00</stageThreshold>
      <weakClassifiers>
        <_>
          <internalNodes>
            0 -1 24 -1.2521607801318169e-02</internalNodes>
          <leafValues>
            4.2408376932144165e-01 -9.0524190664291382e-01</leafValues></_>
        <_>
          <internalNodes>
            0 -1 73 1.0410889983177185e-01</internalNodes>
          <leafValues>
            -7.3804223537445068e-01 5.9685695171356201e-01</leafValues></_>
        <_>
          <internalNodes>
            0 -1 60 -1.3334620743989944e-02</internalNodes>
          <leafValues>
            4.0785482525825500e-01 -9.2674338817596436e-01</leafValues></_></weakClassifiers></_>
    <!-- stage 2 -->
    <_>
      <maxWeakCount>4</maxWeakCount>
      <stageThreshold>-1.5748242139816284e+00</stageThreshold>
      <weakClassifiers>
        <_>
          <internalNodes>
            0 -1 13 -8.6495280265808105e-02</internalNodes>
          <leafValues>
            6.0000002384185791e-01 -8.5687023401260376e-01</leafValues></_>
        <_>
          <internalNodes>
            0 -1 7 -1.7315588891506195e-02</internalNodes>
          <leafValues>
            5.4546809196472168e-01 -7.0166510343551636e-01</leafValues></_>
        <_>
          <internalNodes>
            0 -1 74 -7.8306928277015686e-02</internalNodes>
          <leafValues>
            4.3307140469551086e-01 -6.2159085273742676e-01</leafValues></_>
        <_>
          <internalNodes>
            0 -1 15 -3.9915420114994049e-02</internalNodes>
          <leafValues>
            7.6007038354873657e-01 -4.4936028122901917e-01</leafValues></_></weakClassifiers></_>
    <!-- stage 3 -->
    <_>
      <maxWeakCount>5</maxWeakCount>
      <stageThreshold>-1.5208003520965576e+00</stageThreshold>
      <weakClassifiers>
        <_>
          <internalNodes>
            0 -1 6 3.4474790096282959e-02</internalNodes>
          <leafValues>
            -9.0817469358444214e-01 -2.0689655095338821e-02</leafValues></_>
        <_>
          <internalNodes>
            0 -1 56 2.5908590032486245e-05</internalNodes>
          <leafValues>
            -7.0812118053436279e-01 3.3000528812408447e-01</leafValues></_>
        <_>
          <internalNodes>
            0 -1 80 -4.3771622586064041e-05</internalNodes>
          <leafValues>
            3.5167509317398071e-01 -7.4680167436599731e-01</leafValues></_>
        <_>
          <internalNodes>
            0 -1 33 1.1303064413368702e-02</internalNodes>
          <leafValues>
            -6.3964653015136719e-01 4.3477281928062439e-01</leafValues></_>
        <_>
          <internalNodes>
            0 -1 16 -5.7662436738610268e-03</internalNodes>
          <leafValues>
            6.1035776138305664e-01 -5.0401812791824341e-01</leafValues></_></weakClassifiers></_>
    <!-- stage 4 -->
    <_>
      <maxWeakCount>5</maxWeakCount>
      <stageThreshold>-1.7585871219635010e+00</stageThreshold>
      <weakClassifiers>
        <_>
          <internalNodes>
            0 -1 39 -2.2237148135900497e-02</internalNodes>
          <leafValues>
            1.5476191043853760e-01 -8.3054184913635254e-01</leafValues></_>
        <_>
          <internalNodes>
            0 -1 4 -2.7112200856208801e-02</internalNodes>
          <leafValues>
            2.8834709525108337e-01 -6.9809067249298096e-01</leafValues></_>
        <_>
          <internalNodes>
            0 -1 67 2.4405700969509780e-04</internalNodes>
          <leafValues>
            -6.8765252828598022e-01 3.1571936607360840e-01</leafValues></_>
        <_>
          <internalNodes>
            0 -1 38 -2.4917200207710266e-03</internalNodes>
          <leafValues>
            -9.2459189891815186e-01 2.2542643547058105e-01</leafValues></_>
        <_>
          <internalNodes>
            0 -1 69 -5.6708510965108871e-04</internalNodes>
          <leafValues>
            2.4769476056098938e-01 -7.7110046148300171e-01</leafValues></_></weakClassifiers></_>
    <!-- stage 5 -->
    <_>
      <maxWeakCount>5</maxWeakCount>
      <stageThreshold>-1.7174292802810669e+00</stageThreshold>
      <weakClassifiers>
        <_>
          <internalNodes>
            0 -1 46 -2.1754328161478043e-02</internalNodes>
          <leafValues>
            4.9450549483299255e-01 -7.8937727212905884e-01</leafValues></_>
        <_>
          <internalNodes>
            0 -1 5 2.5178503245115280e-02</internalNodes>
          <leafValues>
            -6.7696487903594971e-01 3.0636203289031982e-01</leafValues></_>
        <_>
          <internalNodes>
            0 -1 37 1.1294912546873093e-03</internalNodes>
          <leafValues>
            2.8847429156303406e-01 -7.6154440641403198e-01</leafValues></_>
        <_>
          <internalNodes>
            0 -1 68 -1.1213714256882668e-02</internalNodes>
          <leafValues>
            2.5333479046821594e-01 -8.2680648565292358e-01</leafValues></_>
        <_>
          <internalNodes>
            0 -1 3 -2.0617899281205609e-05</internalNodes>
          <leafValues>
            2.8724503517150879e-01 -7.8902393579483032e-01</leafValues></_></weakClassifiers></_>
    <!-- stage 6 -->
    <_>
      <maxWeakCount>6</maxWeakCount>
      <stageThreshold>-1.5903639793395996e+00</stageThreshold>
      <weakClassifiers>
        <_>
          <internalNodes>
            0 -1 42 -1.8625020980834961e-02</internalNodes>
          <leafValues>
            1.4285714924335480e-01 -8.1535470485687256e-01</leafValues></_>
        <_>
          <internalNodes>
            0 -1 12 1.4650052413344383e-02</internalNodes>
          <leafValues>
            -7.0537221431732178e-01 1.8926297128200531e-01</leafValues></_>
        <_>
          <internalNodes>
            0 -1 76 1.2092383205890656e-01</internalNodes>
          <leafValues>
            -4.5524451136589050e-01 5.3922510147094727e-01</leafValues></_>
        <_>
          <internalNodes>
            0 -1 32 -1.0972984135150909e-02</internalNodes>
          <leafValues>
            4.2802649736404419e-01 -6.1313313245773315e-01</leafValues></_>
        <_>
          <internalNodes>
            0 -1 19 -7.9313904047012329e-02</internalNodes>
          <leafValues>
            7.2939056158065796e-01 -3.1209477782249451e-01</leafValues></_>
        <_>
          <internalNodes>
            0 -1 63 2.2197946236701682e-05</internalNodes>
          <leafValues>
            -5.7826942205429077e-01 4.6081733703613281e-01</leafValues></_></weakClassifiers></_>
    <!-- stage 7 -->
    <_>
      <maxWeakCount>5</maxWeakCount>
      <stageThreshold>-1.4029568433761597e+00</stageThreshold>
      <weakClassifiers>
        <_>
          <internalNodes>
            0 -1 34 -3.4309316426515579e-02</internalNodes>
          <leafValues>
            9.2896178364753723e-02 -8.3399999141693115e-01</leafValues></_>
        <_>
          <internalNodes>
            0 -1 14 -1.3103960081934929e-02</internalNodes>
          <leafValues>
            5.3468668460845947e-01 -4.9734535813331604e-01</leafValues></_>
        <_>
          <internalNodes>
            0 -1 57 -3.7544468068517745e-04</internalNodes>
          <leafValues>
            2.2589623928070068e-01 -8.4504336118698120e-01</leafValues></_>
        <_>
          <internalNodes>
            0 -1 49 -2.1046245470643044e-02</internalNodes>
          <leafValues>
            4.9068614840507507e-01 -4.6231889724731445e-01</leafValues></_>
        <_>
          <internalNodes>
            0 -1 85 -1.0932615259662271e-04</internalNodes>
          <leafValues>
            2.8274580836296082e-01 -9.3940538167953491e-01</leafValues></_></weakClassifiers></_>
    <!-- stage 8 -->
    <_>
      <maxWeakCount>4</maxWeakCount>
      <stageThreshold>-1.0628160238265991e+00</stageThreshold>
      <weakClassifiers>
        <_>
          <internalNodes>
            0 -1 51 -1.7177037894725800e-02</internalNodes>
          <leafValues>
            3.2727271318435669e-01 -7.9496735334396362e-01</leafValues></_>
        <_>
          <internalNodes>
            0 -1 86 -8.2791765453293920e-04</internalNodes>
          <leafValues>
            -7.5027918815612793e-01 1.9898109138011932e-01</leafValues></_>
        <_>
          <internalNodes>
            0 -1 1 1.7450672748964280e-04</internalNodes>
          <leafValues>
            1.3570916652679443e-01 -9.9064224958419800e-01</leafValues></_>
        <_>
          <internalNodes>
            0 -1 30 5.4955273866653442e-02</internalNodes>
          <leafValues>
            -5.3745871782302856e-01 3.4672141075134277e-01</leafValues></_></weakClassifiers></_>
    <!-- stage 9 -->
    <_>
      <maxWeakCount>5</maxWeakCount>
      <stageThreshold>-1.2462985515594482e+00</stageThreshold>
      <weakClassifiers>
        <_>
          <internalNodes>
            0 -1 26 -6.0178879648447037e-02</internalNodes>
          <leafValues>
            3.0952382087707520e-01 -7.6706093549728394e-01</leafValues></_>
        <_>
          <internalNodes>
            0 -1 23 -1.3053344562649727e-02</internalNodes>
          <leafValues>
            1.6423118114471436e-01 -6.5504968166351318e-01</leafValues></_>
        <_>
          <internalNodes>
            0 -1 48 6.7886315286159515e-02</internalNodes>
          <leafValues>
            1.8068875372409821e-01 -9.6585279703140259e-01</leafValues></_>
        <_>
          <internalNodes>
            0 -1 64 1.4457374811172485e-02</internalNodes>
          <leafValues>
            -9.1818344593048096e-01 1.7984223365783691e-01</leafValues></_>
        <_>
          <internalNodes>
            0 -1 82 -7.5342680793255568e-04</internalNodes>
          <leafValues>
            -9.3885701894760132e-01 1.4254178106784821e-01</leafValues></_></weakClassifiers></_>
    <!-- stage 10 -->
    <_>
      <maxWeakCount>5</maxWeakCount>
      <stageThreshold>-1.1181499958038330e+00</stageThreshold>
      <weakClassifiers>
        <_>
          <internalNodes>
            0 -1 11 -1.0593792423605919e-02</internalNodes>
          <leafValues>
            4.7945204377174377e-01 -7.6756757497787476e-01</leafValues></_>
        <_>
          <internalNodes>
            0 -1 35 1.4460202306509018e-02</internalNodes>
          <leafValues>
            -6.9067907333374023e-01 1.1181865632534027e-01</leafValues></_>
        <_>
          <internalNodes>
            0 -1 83 2.1446726168505847e-04</internalNodes>
          <leafValues>
            2.3252049088478088e-01 -7.2772657871246338e-01</leafValues></_>
        <_>
          <internalNodes>
            0 -1 55 -1.6423501074314117e-02</internalNodes>
          <leafValues>
            2.6058310270309448e-01 -8.2243716716766357e-01</leafValues></_>
        <_>
          <internalNodes>
            0 -1 53 3.7481912877410650e-03</internalNodes>
          <leafValues>
            1.2751562893390656e-01 -9.7662639617919922e-01</leafValues></_></weakClassifiers></_>
    <!-- stage 11 -->
    <_>
      <maxWeakCount>8</maxWeakCount>
      <stageThreshold>-1.9813381433486938e+00</stageThreshold>
      <weakClassifiers>
        <_>
          <internalNodes>
            0 -1 72 2.5547202676534653e-02</internalNodes>
          <leafValues>
            -7.5849729776382446e-01 4.7692307829856873e-01</leafValues></_>
        <_>
          <internalNodes>
            0 -1 17 -1.8065009266138077e-02</internalNodes>
          <leafValues>
            2.6961925625801086e-01 -5.5044925212860107e-01</leafValues></_>
        <_>
          <internalNodes>
            0 -1 27 -2.2507072571897879e-05</internalNodes>
          <leafValues>
            1.9354453682899475e-01 -8.1493604183197021e-01</leafValues></_>
        <_>
          <internalNodes>
            0 -1 0 -1.6078221960924566e-04</internalNodes>
          <leafValues>
            -5.2762538194656372e-01 3.5186898708343506e-01</leafValues></_>
        <_>
          <internalNodes>
            0 -1 52 1.1442294344305992e-03</internalNodes>
          <leafValues>
            -4.4854465126991272e-01 4.0628558397293091e-01</leafValues></_>
        <_>
          <internalNodes>
            0 -1 66 3.8849883712828159e-03</internalNodes>
          <leafValues>
            2.1214756369590759e-01 -9.0960425138473511e-01</leafValues></_>
        <_>
          <internalNodes>
            0 -1 9 -6.2658833339810371e-03</internalNodes>
          <leafValues>
            4.1284126043319702e-01 -4.0712243318557739e-01</leafValues></_>
        <_>
          <internalNodes>
            0 -1 85 -1.0704862652346492e-03</internalNodes>
          <leafValues>
            -3.8085627555847168e-01 4.9362084269523621e-01</leafValues></_></weakClassifiers></_>
    <!-- stage 12 -->
    <_>
      <maxWeakCount>4</maxWeakCount>
      <stageThreshold>-1.2006051540374756e+00</stageThreshold>
      <weakClassifiers>
        <_>
          <internalNodes>
            0 -1 26 -5.9169448912143707e-02</internalNodes>
          <leafValues>
            1.1538461595773697e-01 -7.6830399036407471e-01</leafValues></_>
        <_>
          <internalNodes>
            0 -1 71 -2.7501899749040604e-03</internalNodes>
          <leafValues>
            2.2902031242847443e-01 -5.9115266799926758e-01</leafValues></_>
        <_>
          <internalNodes>
            0 -1 84 -7.8619676060043275e-05</internalNodes>
          <leafValues>
            2.3074078559875488e-01 -7.5327163934707642e-01</leafValues></_>
        <_>
          <internalNodes>
            0 -1 50 -6.2133157625794411e-03</internalNodes>
          <leafValues>
            -8.9206230640411377e-01 2.0811468362808228e-01</leafValues></_></weakClassifiers></_>
    <!-- stage 13 -->
    <_>
      <maxWeakCount>8</maxWeakCount>
      <stageThreshold>-1.9611225128173828e+00</stageThreshold>
      <weakClassifiers>
        <_>
          <internalNodes>
            0 -1 2 -1.2229341082274914e-02</internalNodes>
          <leafValues>
            6.7114094272255898e-03 -7.9110252857208252e-01</leafValues></_>
        <_>
          <internalNodes>
            0 -1 47 5.1649175584316254e-03</internalNodes>
          <leafValues>
            -6.6592514514923096e-01 9.4063192605972290e-02</leafValues></_>
        <_>
          <internalNodes>
            0 -1 45 4.5223705470561981e-02</internalNodes>
          <leafValues>
            1.6513216495513916e-01 -9.6031129360198975e-01</leafValues></_>
        <_>
          <internalNodes>
            0 -1 79 4.2046490125358105e-04</internalNodes>
          <leafValues>
            2.8004923462867737e-01 -5.4902958869934082e-01</leafValues></_>
        <_>
          <internalNodes>
            0 -1 29 7.0717325434088707e-03</internalNodes>
          <leafValues>
            -8.2898575067520142e-01 2.3733668029308319e-01</leafValues></_>
        <_>
          <internalNodes>
            0 -1 8 2.3334249854087830e-03</internalNodes>
          <leafValues>
            1.6583372652530670e-01 -8.0516791343688965e-01</leafValues></_>
        <_>
          <internalNodes>
            0 -1 61 1.4482249971479177e-03</internalNodes>
          <leafValues>
            -5.0916254520416260e-01 3.7602958083152771e-01</leafValues></_>
        <_>
          <internalNodes>
            0 -1 65 -3.6627952940762043e-03</internalNodes>
          <leafValues>
            -8.5475891828536987e-01 2.2303828597068787e-01</leafValues></_></weakClassifiers></_>
    <!-- stage 14 -->
    <_>
      <maxWeakCount>8</maxWeakCount>
      <stageThreshold>-1.5058553218841553e+00</stageThreshold>
      <weakClassifiers>
        <_>
          <internalNodes>
            0 -1 20 -2.3418995738029480e-01</internalNodes>
          <leafValues>
            1. -7.3310226202011108e-01</leafValues></_>
        <_>
          <internalNodes>
            0 -1 70 1.7663071048446000e-04</internalNodes>
          <leafValues>
            -7.0058459043502808e-01 1.3337916135787964e-01</leafValues></_>
        <_>
          <internalNodes>
            0 -1 81 1.8226777319796383e-04</internalNodes>
          <leafValues>
            2.4894767999649048e-01 -6.8604481220245361e-01</leafValues></_>
        <_>
          <internalNodes>
            0 -1 43 1.0958740487694740e-02</internalNodes>
          <leafValues>
            -3.1938716769218445e-01 5.5960804224014282e-01</leafValues></_>
        <_>
          <internalNodes>
            0 -1 21 6.6839292412623763e-04</internalNodes>
          <leafValues>
            1.7936356365680695e-01 -9.6265983581542969e-01</leafValues></_>
        <_>
          <internalNodes>
            0 -1 62 3.9668856188654900e-03</internalNodes>
          <leafValues>
            1.4687311649322510e-01 -9.3157082796096802e-01</leafValues></_>
        <_>
          <internalNodes>
            0 -1 28 -2.4349872546736151e-05</internalNodes>
          <leafValues>
            2.6945522427558899e-01 -5.3912562131881714e-01</leafValues></_>
        <_>
          <internalNodes>
            0 -1 59 -2.1286727132974193e-05</internalNodes>
          <leafValues>
            4.7418811917304993e-01 -3.7437388300895691e-01</leafValues></_></weakClassifiers></_>
    <!-- stage 15 -->
    <_>
      <maxWeakCount>6</maxWeakCount>
      <stageThreshold>-1.8753814697265625e+00</stageThreshold>
      <weakClassifiers>
        <_>
          <internalNodes>
            0 -1 22 -1.5866186469793320e-02</internalNodes>
          <leafValues>
            6.7500001192092896e-01 -7.8966456651687622e-01</leafValues></_>
        <_>
          <internalNodes>
            0 -1 77 2.9481500387191772e-03</internalNodes>
          <leafValues>
            -6.2667363882064819e-01 2.5777950882911682e-01</leafValues></_>
        <_>
          <internalNodes>
            0 -1 78 -2.0505347492871806e-05</internalNodes>
          <leafValues>
            3.1634134054183960e-01 -6.2196183204650879e-01</leafValues></_>
        <_>
          <internalNodes>
            0 -1 75 1.4646026538684964e-03</internalNodes>
          <leafValues>
            3.9752072095870972e-01 -5.5825227499008179e-01</leafValues></_>
        <_>
          <internalNodes>
            0 -1 40 -1.8514299765229225e-02</internalNodes>
          <leafValues>
            5.2207231521606445e-01 -4.7821721434593201e-01</leafValues></_>
        <_>
          <internalNodes>
            0 -1 54 -8.8971480727195740e-03</internalNodes>
          <leafValues>
            -9.4151389598846436e-01 2.4361506104469299e-01</leafValues></_></weakClassifiers></_>
    <!-- stage 16 -->
    <_>
      <maxWeakCount>5</maxWeakCount>
      <stageThreshold>-1.6209043264389038e+00</stageThreshold>
      <weakClassifiers>
        <_>
          <internalNodes>
            0 -1 18 -1.7950944602489471e-02</internalNodes>
          <leafValues>
            1. -7.7304965257644653e-01</leafValues></_>
        <_>
          <internalNodes>
            0 -1 36 -4.7597493976354599e-03</internalNodes>
          <leafValues>
            5.1703304052352905e-01 -6.2448149919509888e-01</leafValues></_>
        <_>
          <internalNodes>
            0 -1 10 -1.2096581980586052e-02</internalNodes>
          <leafValues>
            7.0407110452651978e-01 -3.5307997465133667e-01</leafValues></_>
        <_>
          <internalNodes>
            0 -1 58 -8.0716761294752359e-04</internalNodes>
          <leafValues>
            5.2041405439376831e-01 -5.7416892051696777e-01</leafValues></_>
        <_>
          <internalNodes>
            0 -1 44 -4.0253929793834686e-02</internalNodes>
          <leafValues>
            6.6451805830001831e-01 -3.9070731401443481e-01</leafValues></_></weakClassifiers></_></stages>
  <features>
    <_>
      <rects>
        <_>
          0 0 2 1 -1.</_>
        <_>
          1 0 1 1 2.</_></rects>
      <tilted>0</tilted></_>
    <_>
      <rects>
        <_>
          0 0 2 2 -1.</_>
        <_>
          1 0 1 2 2.</_></rects>
      <tilted>0</tilted></_>
    <_>
      <rects>
        <_>
          0 0 4 6 -1.</_>
        <_>
          0 0 2 3 2.</_>
        <_>
          2 3 2 3 2.</_></rects>
      <tilted>0</tilted></_>
    <_>
      <rects>
        <_>
          0 0 3 2 -1.</_>
        <_>
          0 1 3 1 2.</_></rects>
      <tilted>0</tilted></_>
    <_>
      <rects>
        <_>
          0 0 6 6 -1.</_>
        <_>
          3 0 3 6 2.</_></rects>
      <tilted>0</tilted></_>
    <_>
      <rects>
        <_>
          0 0 8 12 -1.</_>
        <_>
          0 0 4 6 2.</_>
        <_>
          4 6 4 6 2.</_></rects>
      <tilted>0</tilted></_>
    <_>
      <rects>
        <_>
          0 0 10 10 -1.</_>
        <_>
          0 0 5 5 2.</_>
        <_>
          5 5 5 5 2.</_></rects>
      <tilted>0</tilted></_>
    <_>
      <rects>
        <_>
          0 0 6 4 -1.</_>
        <_>
          0 2 6 2 2.</_></rects>
      <tilted>0</tilted></_>
    <_>
      <rects>
        <_>
          0 0 16 1 -1.</_>
        <_>
          8 0 8 1 2.</_></rects>
      <tilted>0</tilted></_>
    <_>
      <rects>
        <_>
          0 0 15 3 -1.</_>
        <_>
          0 1 15 1 3.</_></rects>
      <tilted>0</tilted></_>
    <_>
      <rects>
        <_>
          0 0 19 3 -1.</_>
        <_>
          0 1 19 1 3.</_></rects>
      <tilted>0</tilted></_>
    <_>
      <rects>
        <_>
          0 1 2 8 -1.</_>
        <_>
          0 1 1 4 2.</_>
        <_>
          1 5 1 4 2.</_></rects>
      <tilted>0</tilted></_>
    <_>
      <rects>
        <_>
          0 1 8 8 -1.</_>
        <_>
          0 1 4 4 2.</_>
        <_>
          4 5 4 4 2.</_></rects>
      <tilted>0</tilted></_>
    <_>
      <rects>
        <_>
          0 1 24 2 -1.</_>
        <_>
          8 1 8 2 3.</_></rects>
      <tilted>0</tilted></_>
    <_>
      <rects>
        <_>
          0 6 3 10 -1.</_>
        <_>
          1 6 1 10 3.</_></rects>
      <tilted>0</tilted></_>
    <_>
      <rects>
        <_>
          0 8 4 15 -1.</_>
        <_>
          2 8 2 15 2.</_></rects>
      <tilted>0</tilted></_>
    <_>
      <rects>
        <_>
          0 11 2 11 -1.</_>
        <_>
          1 11 1 11 2.</_></rects>
      <tilted>0</tilted></_>
    <_>
      <rects>
        <_>
          0 11 4 13 -1.</_>
        <_>
          2 11 2 13 2.</_></rects>
      <tilted>0</tilted></_>
    <_>
      <rects>
        <_>
          0 11 10 6 -1.</_>
        <_>
          0 11 5 3 2.</_>
        <_>
          5 14 5 3 2.</_></rects>
      <tilted>0</tilted></_>
    <_>
      <rects>
        <_>
          0 14 8 10 -1.</_>
        <_>
          4 14 4 10 2.</_></rects>
      <tilted>0</tilted></_>
    <_>
      <rects>
        <_>
          0 18 24 5 -1.</_>
        <_>
          8 18 8 5 3.</_></rects>
      <tilted>0</tilted></_>
    <_>
      <rects>
        <_>
          0 22 2 2 -1.</_>
        <_>
          0 23 2 1 2.</_></rects>
      <tilted>0</tilted></_>
    <_>
      <rects>
        <_>
          0 22 12 1 -1.</_>
        <_>
          6 22 6 1 2.</_></rects>
      <tilted>0</tilted></_>
    <_>
      <rects>
        <_>
          1 0 6 4 -1.</_>
        <_>
          1 2 6 2 2.</_></rects>
      <tilted>0</tilted></_>
    <_>
      <rects>
        <_>
          1 0 17 2 -1.</_>
        <_>
          1 1 17 1 2.</_></rects>
      <tilted>0</tilted></_>
    <_>
      <rects>
        <_>
          1 0 22 15 -1.</_>
        <_>
          1 5 22 5 3.</_></rects>
      <tilted>0</tilted></_>
    <_>
      <rects>
        <_>
          1 1 21 1 -1.</_>
        <_>
          8 1 7 1 3.</_></rects>
      <tilted>0</tilted></_>
    <_>
      <rects>
        <_>
          1 2 1 4 -1.</_>
        <_>
          1 4 1 2 2.</_></rects>
      <tilted>0</tilted></_>
    <_>
      <rects>
        <_>
          1 3 3 3 -1.</_>
        <_>
          1 4 3 1 3.</_></rects>
      <tilted>0</tilted></_>
    <_>
      <rects>
        <_>
          1 6 17 10 -1.</_>
        <_>
          1 11 17 5 2.</_></rects>
      <tilted>0</tilted></_>
    <_>
      <rects>
        <_>
          1 6 19 14 -1.</_>
        <_>
          1 13 19 7 2.</_></rects>
      <tilted>0</tilted></_>
    <_>
      <rects>
        <_>
          1 7 20 10 -1.</_>
        <_>
          1 12 20 5 2.</_></rects>
      <tilted>0</tilted></_>
    <_>
      <rects>
        <_>
          1 8 20 6 -1.</_>
        <_>
          1 10 20 2 3.</_></rects>
      <tilted>0</tilted></_>
    <_>
      <rects>
        <_>
          1 9 8 8 -1.</_>
        <_>
          1 13 8 4 2.</_></rects>
      <tilted>0</tilted></_>
    <_>
      <rects>
        <_>
          2 0 7 4 -1.</_>
        <_>
          2 2 7 2 2.</_></rects>
      <tilted>0</tilted></_>
    <_>
      <rects>
        <_>
          2 3 12 18 -1.</_>
        <_>
          2 12 12 9 2.</_></rects>
      <tilted>0</tilted></_>
    <_>
      <rects>
        <_>
          2 17 6 6 -1.</_>
        <_>
          2 17 3 3 2.</_>
        <_>
          5 20 3 3 2.</_></rects>
      <tilted>0</tilted></_>
    <_>
      <rects>
        <_>
          2 23 18 1 -1.</_>
        <_>
          11 23 9 1 2.</_></rects>
      <tilted>0</tilted></_>
    <_>
      <rects>
        <_>
          3 0 20 2 -1.</_>
        <_>
          13 0 10 2 2.</_></rects>
      <tilted>0</tilted></_>
    <_>
      <rects>
        <_>
          3 0 15 2 -1.</_>
        <_>
          3 1 15 1 2.</_></rects>
      <tilted>0</tilted></_>
    <_>
      <rects>
        <_>
          3 6 14 14 -1.</_>
        <_>
          3 6 7 7 2.</_>
        <_>
          10 13 7 7 2.</_></rects>
      <tilted>0</tilted></_>
    <_>
      <rects>
        <_>
          3 8 16 8 -1.</_>
        <_>
          3 12 16 4 2.</_></rects>
      <tilted>0</tilted></_>
    <_>
      <rects>
        <_>
          4 0 3 4 -1.</_>
        <_>
          4 2 3 2 2.</_></rects>
      <tilted>0</tilted></_>
    <_>
      <rects>
        <_>
          4 4 14 6 -1.</_>
        <_>
          4 6 14 2 3.</_></rects>
      <tilted>0</tilted></_>
    <_>
      <rects>
        <_>
          4 5 14 18 -1.</_>
        <_>
          4 5 7 9 2.</_>
        <_>
          11 14 7 9 2.</_></rects>
      <tilted>0</tilted></_>
    <_>
      <rects>
        <_>
          4 5 12 10 -1.</_>
        <_>
          4 10 12 5 2.</_></rects>
      <tilted>0</tilted></_>
    <_>
      <rects>
        <_>
          5 0 12 3 -1.</_>
        <_>
          5 1 12 1 3.</_></rects>
      <tilted>0</tilted></_>
    <_>
      <rects>
        <_>
          5 2 4 16 -1.</_>
        <_>
          5 10 4 8 2.</_></rects>
      <tilted>0</tilted></_>
    <_>
      <rects>
        <_>
          5 4 9 14 -1.</_>
        <_>
          5 11 9 7 2.</_></rects>
      <tilted>0</tilted></_>
    <_>
      <rects>
        <_>
          7 0 10 6 -1.</_>
        <_>
          7 2 10 2 3.</_></rects>
      <tilted>0</tilted></_>
    <_>
      <rects>
        <_>
          7 18 4 6 -1.</_>
        <_>
          9 18 2 6 2.</_></rects>
      <tilted>0</tilted></_>
    <_>
      <rects>
        <_>
          8 0 9 3 -1.</_>
        <_>
          8 1 9 1 3.</_></rects>
      <tilted>0</tilted></_>
    <_>
      <rects>
        <_>
          8 4 1 6 -1.</_>
        <_>
          8 6 1 2 3.</_></rects>
      <tilted>0</tilted></_>
    <_>
      <rects>
        <_>
          8 17 6 5 -1.</_>
        <_>
          10 17 2 5 3.</_></rects>
      <tilted>0</tilted></_>
    <_>
      <rects>
        <_>
          8 18 6 3 -1.</_>
        <_>
          11 18 3 3 2.</_></rects>
      <tilted>0</tilted></_>
    <_>
      <rects>
        <_>
          9 2 15 9 -1.</_>
        <_>
          14 2 5 9 3.</_></rects>
      <tilted>0</tilted></_>
    <_>
      <rects>
        <_>
          9 5 1 2 -1.</_>
        <_>
          9 6 1 1 2.</_></rects>
      <tilted>0</tilted></_>
    <_>
      <rects>
        <_>
          9 12 4 8 -1.</_>
        <_>
          9 16 4 4 2.</_></rects>
      <tilted>0</tilted></_>
    <_>
      <rects>
        <_>
          10 3 14 3 -1.</_>
        <_>
          10 4 14 1 3.</_></rects>
      <tilted>0</tilted></_>
    <_>
      <rects>
        <_>
          10 12 3 2 -1.</_>
        <_>
          11 12 1 2 3.</_></rects>
      <tilted>0</tilted></_>
    <_>
      <rects>
        <_>
          10 12 5 12 -1.</_>
        <_>
          10 18 5 6 2.</_></rects>
      <tilted>0</tilted></_>
    <_>
      <rects>
        <_>
          10 12 12 4 -1.</_>
        <_>
          10 12 6 2 2.</_>
        <_>
          16 14 6 2 2.</_></rects>
      <tilted>0</tilted></_>
    <_>
      <rects>
        <_>
          10 17 6 6 -1.</_>
        <_>
          12 17 2 6 3.</_></rects>
      <tilted>0</tilted></_>
    <_>
      <rects>
        <_>
          11 5 2 2 -1.</_>
        <_>
          11 6 2 1 2.</_></rects>
      <tilted>0</tilted></_>
    <_>
      <rects>
        <_>
          11 6 6 18 -1.</_>
        <_>
          11 12 6 6 3.</_></rects>
      <tilted>0</tilted></_>
    <_>
      <rects>
        <_>
          12 0 2 20 -1.</_>
        <_>
          13 0 1 20 2.</_></rects>
      <tilted>0</tilted></_>
    <_>
      <rects>
        <_>
          12 0 2 23 -1.</_>
        <_>
          13 0 1 23 2.</_></rects>
      <tilted>0</tilted></_>
    <_>
      <rects>
        <_>
          12 11 8 3 -1.</_>
        <_>
          12 12 8 1 3.</_></rects>
      <tilted>0</tilted></_>
    <_>
      <rects>
        <_>
          12 12 4 12 -1.</_>
        <_>
          12 18 4 6 2.</_></rects>
      <tilted>0</tilted></_>
    <_>
      <rects>
        <_>
          13 0 6 11 -1.</_>
        <_>
          15 0 2 11 3.</_></rects>
      <tilted>0</tilted></_>
    <_>
      <rects>
        <_>
          13 12 6 3 -1.</_>
        <_>
          13 13 6 1 3.</_></rects>
      <tilted>0</tilted></_>
    <_>
      <rects>
        <_>
          13 20 4 4 -1.</_>
        <_>
          13 22 4 2 2.</_></rects>
      <tilted>0</tilted></_>
    <_>
      <rects>
        <_>
          14 0 8 4 -1.</_>
        <_>
          14 0 4 2 2.</_>
        <_>
          18 2 4 2 2.</_></rects>
      <tilted>0</tilted></_>
    <_>
      <rects>
        <_>
          14 0 10 10 -1.</_>
        <_>
          19 0 5 10 2.</_></rects>
      <tilted>0</tilted></_>
    <_>
      <rects>
        <_>
          14 0 9 18 -1.</_>
        <_>
          14 6 9 6 3.</_></rects>
      <tilted>0</tilted></_>
    <_>
      <rects>
        <_>
          15 0 4 1 -1.</_>
        <_>
          17 0 2 1 2.</_></rects>
      <tilted>0</tilted></_>
    <_>
      <rects>
        <_>
          16 1 8 17 -1.</_>
        <_>
          20 1 4 17 2.</_></rects>
      <tilted>0</tilted></_>
    <_>
      <rects>
        <_>
          16 10 1 9 -1.</_>
        <_>
          16 13 1 3 3.</_></rects>
      <tilted>0</tilted></_>
    <_>
      <rects>
        <_>
          18 0 1 2 -1.</_>
        <_>
          18 1 1 1 2.</_></rects>
      <tilted>0</tilted></_>
    <_>
      <rects>
        <_>
          18 0 4 1 -1.</_>
        <_>
          20 0 2 1 2.</_></rects>
      <tilted>0</tilted></_>
    <_>
      <rects>
        <_>
          19 2 1 2 -1.</_>
        <_>
          19 3 1 1 2.</_></rects>
      <tilted>0</tilted></_>
    <_>
      <rects>
        <_>
          21 0 3 1 -1.</_>
        <_>
          22 0 1 1 3.</_></rects>
      <tilted>0</tilted></_>
    <_>
      <rects>
        <_>
          21 0 2 7 -1.</_>
        <_>
          22 0 1 7 2.</_></rects>
      <tilted>0</tilted></_>
    <_>
      <rects>
        <_>
          22 0 2 2 -1.</_>
        <_>
          23 0 1 2 2.</_></rects>
      <tilted>0</tilted></_>
    <_>
      <rects>
        <_>
          22 6 2 4 -1.</_>
        <_>
          22 8 2 2 2.</_></rects>
      <tilted>0</tilted></_>
    <_>
      <rects>
        <_>
          23 2 1 6 -1.</_>
        <_>
          23 5 1 3 2.</_></rects>
      <tilted>0</tilted></_>
    <_>
      <rects>
        <_>
          23 3 1 9 -1.</_>
        <_>
          23 6 1 3 3.</_></rects>
      <tilted>0</tilted></_></features></cascade>
</opencv_storage>
