<?xml version="1.0"?>
<opencv_storage>
<stage13>
  <maxWeakCount>8</maxWeakCount>
  <stageThreshold>-1.9611225128173828e+00</stageThreshold>
  <weakClassifiers>
    <_>
      <internalNodes>
        0 -1 94 -1.2229341082274914e-02</internalNodes>
      <leafValues>
        6.7114094272255898e-03 -7.9110252857208252e-01</leafValues></_>
    <_>
      <internalNodes>
        0 -1 62325 5.1649175584316254e-03</internalNodes>
      <leafValues>
        -6.6592514514923096e-01 9.4063192605972290e-02</leafValues></_>
    <_>
      <internalNodes>
        0 -1 54123 4.5223705470561981e-02</internalNodes>
      <leafValues>
        1.6513216495513916e-01 -9.6031129360198975e-01</leafValues></_>
    <_>
      <internalNodes>
        0 -1 151964 4.2046490125358105e-04</internalNodes>
      <leafValues>
        2.8004923462867737e-01 -5.4902958869934082e-01</leafValues></_>
    <_>
      <internalNodes>
        0 -1 19470 7.0717325434088707e-03</internalNodes>
      <leafValues>
        -8.2898575067520142e-01 2.3733668029308319e-01</leafValues></_>
    <_>
      <internalNodes>
        0 -1 560 2.3334249854087830e-03</internalNodes>
      <leafValues>
        1.6583372652530670e-01 -8.0516791343688965e-01</leafValues></_>
    <_>
      <internalNodes>
        0 -1 112685 1.4482249971479177e-03</internalNodes>
      <leafValues>
        -5.0916254520416260e-01 3.7602958083152771e-01</leafValues></_>
    <_>
      <internalNodes>
        0 -1 121414 -3.6627952940762043e-03</internalNodes>
      <leafValues>
        -8.5475891828536987e-01 2.2303828597068787e-01</leafValues></_></weakClassifiers></stage13>
</opencv_storage>
