<?xml version="1.0"?>
<opencv_storage>
<stage4>
  <maxWeakCount>5</maxWeakCount>
  <stageThreshold>-1.7585871219635010e+00</stageThreshold>
  <weakClassifiers>
    <_>
      <internalNodes>
        0 -1 38788 -2.2237148135900497e-02</internalNodes>
      <leafValues>
        1.5476191043853760e-01 -8.3054184913635254e-01</leafValues></_>
    <_>
      <internalNodes>
        0 -1 185 -2.7112200856208801e-02</internalNodes>
      <leafValues>
        2.8834709525108337e-01 -6.9809067249298096e-01</leafValues></_>
    <_>
      <internalNodes>
        0 -1 126299 2.4405700969509780e-04</internalNodes>
      <leafValues>
        -6.8765252828598022e-01 3.1571936607360840e-01</leafValues></_>
    <_>
      <internalNodes>
        0 -1 38656 -2.4917200207710266e-03</internalNodes>
      <leafValues>
        -9.2459189891815186e-01 2.2542643547058105e-01</leafValues></_>
    <_>
      <internalNodes>
        0 -1 128170 -5.6708510965108871e-04</internalNodes>
      <leafValues>
        2.4769476056098938e-01 -7.7110046148300171e-01</leafValues></_></weakClassifiers></stage4>
</opencv_storage>
