<?xml version="1.0"?>
<opencv_storage>
<stage3>
  <maxWeakCount>5</maxWeakCount>
  <stageThreshold>-1.5208003520965576e+00</stageThreshold>
  <weakClassifiers>
    <_>
      <internalNodes>
        0 -1 344 3.4474790096282959e-02</internalNodes>
      <leafValues>
        -9.0817469358444214e-01 -2.0689655095338821e-02</leafValues></_>
    <_>
      <internalNodes>
        0 -1 101686 2.5908590032486245e-05</internalNodes>
      <leafValues>
        -7.0812118053436279e-01 3.3000528812408447e-01</leafValues></_>
    <_>
      <internalNodes>
        0 -1 155610 -4.3771622586064041e-05</internalNodes>
      <leafValues>
        3.5167509317398071e-01 -7.4680167436599731e-01</leafValues></_>
    <_>
      <internalNodes>
        0 -1 21291 1.1303064413368702e-02</internalNodes>
      <leafValues>
        -6.3964653015136719e-01 4.3477281928062439e-01</leafValues></_>
    <_>
      <internalNodes>
        0 -1 9472 -5.7662436738610268e-03</internalNodes>
      <leafValues>
        6.1035776138305664e-01 -5.0401812791824341e-01</leafValues></_></weakClassifiers></stage3>
</opencv_storage>
