<?xml version="1.0"?>
<opencv_storage>
<stage6>
  <maxWeakCount>6</maxWeakCount>
  <stageThreshold>-1.5903639793395996e+00</stageThreshold>
  <weakClassifiers>
    <_>
      <internalNodes>
        0 -1 49642 -1.8625020980834961e-02</internalNodes>
      <leafValues>
        1.4285714924335480e-01 -8.1535470485687256e-01</leafValues></_>
    <_>
      <internalNodes>
        0 -1 1348 1.4650052413344383e-02</internalNodes>
      <leafValues>
        -7.0537221431732178e-01 1.8926297128200531e-01</leafValues></_>
    <_>
      <internalNodes>
        0 -1 144635 1.2092383205890656e-01</internalNodes>
      <leafValues>
        -4.5524451136589050e-01 5.3922510147094727e-01</leafValues></_>
    <_>
      <internalNodes>
        0 -1 20886 -1.0972984135150909e-02</internalNodes>
      <leafValues>
        4.2802649736404419e-01 -6.1313313245773315e-01</leafValues></_>
    <_>
      <internalNodes>
        0 -1 11162 -7.9313904047012329e-02</internalNodes>
      <leafValues>
        7.2939056158065796e-01 -3.1209477782249451e-01</leafValues></_>
    <_>
      <internalNodes>
        0 -1 117056 2.2197946236701682e-05</internalNodes>
      <leafValues>
        -5.7826942205429077e-01 4.6081733703613281e-01</leafValues></_></weakClassifiers></stage6>
</opencv_storage>
