<?xml version="1.0"?>
<opencv_storage>
<stage16>
  <maxWeakCount>5</maxWeakCount>
  <stageThreshold>-1.6209043264389038e+00</stageThreshold>
  <weakClassifiers>
    <_>
      <internalNodes>
        0 -1 9618 -1.7950944602489471e-02</internalNodes>
      <leafValues>
        1. -7.7304965257644653e-01</leafValues></_>
    <_>
      <internalNodes>
        0 -1 36983 -4.7597493976354599e-03</internalNodes>
      <leafValues>
        5.1703304052352905e-01 -6.2448149919509888e-01</leafValues></_>
    <_>
      <internalNodes>
        0 -1 985 -1.2096581980586052e-02</internalNodes>
      <leafValues>
        7.0407110452651978e-01 -3.5307997465133667e-01</leafValues></_>
    <_>
      <internalNodes>
        0 -1 109104 -8.0716761294752359e-04</internalNodes>
      <leafValues>
        5.2041405439376831e-01 -5.7416892051696777e-01</leafValues></_>
    <_>
      <internalNodes>
        0 -1 53960 -4.0253929793834686e-02</internalNodes>
      <leafValues>
        6.6451805830001831e-01 -3.9070731401443481e-01</leafValues></_></weakClassifiers></stage16>
</opencv_storage>
